-0.139904022426
0.879444948702
-0.713534608767
0.78629127592
-0.778051858004
0.154352374161
-0.869711190789
0.399879568831
0.197346778509
-0.428195671066
0.398530440993
0.808491989526
0.0690537783927
-0.685892582274
-0.0132505529303
-1.06848805806
0.0927272321326
-0.545590273442
0.194870436124
0.474669992832
0.356404412946
0.160163265621
-0.867951469054
-0.666518679303
0.662670611933
0.471685708439
-0.367428684936
-0.676508747698
1.29016145156
-0.265353581252
-0.213358296876
0.395857625059
-1.11558950511
0.448610970012
0.99719314085
-0.716834663046
0.509610332784
-1.68978484396
-0.0920032386046
0.191578684311
0.82603083088
0.261047806658
1.16878374074
0.552766922924
0.688652463712
-0.0581566447109
0.233861856116
-0.347213509267
0.828367289733
-1.53214660617
0.846023316033
0.298299855391
0.00111465237982
0.782181339302
0.684087282204
-0.713464224283
0.862159072592
-0.889999237242
-0.323994408375
-0.478516213429
-0.144514456739
-0.57061637023
-0.0496502230255
-1.57031564492
0.472508906346
0.134714150368
-0.0612815281566
-0.151200205085
0.466679082288
0.113594285894
2.16559395596
-0.440156392034
0.605503923908
-1.83743327881
0.494671161979
-0.530170995794
-1.50208481367
0.399194566425
0.16998011454
-0.726829262678
0.666257571251
0.568565943288
0.904664675335
-0.0754455384638
0.36462072406
0.635759689833
1.27752530789
0.251073873758
1.21813328658
-0.146549356029
1.11935325934
-0.583304877494
0.39934066184
0.0819404143054
-0.229675551613
-1.250808506
-0.787407143573
0.637807558211
-0.219125987237
0.141781304449
0.632724928729
0.100508120682
0.0627881527945
1.59811864297
-1.13070886575
-0.269532736544
0.297913763789
-1.1756528403
-0.724990394862
0.275157040244
0.6655227554
0.0270254927023
0.769790969406
-0.638974043488
-0.618201233451
0.748538169119
-0.636752766744
-1.43445559744
0.696404990914
0.869872535459
-0.900685291558
-1.41197027736
-0.431501756665
-0.551121872409
8.51899973598e-05
-0.853011665941
0.452721457676
-0.187895703528
-0.567888639092
-0.101254072891
0.0158547154161
-1.13944477153
0.266664660659
0.443071425567
-0.781215646203
0.192917600096
-0.47578718737
0.649898579614
-1.0957106054
-0.540098986654
-0.840252030933
1.77577177611
1.24768748413
-0.105512728214
0.935548196403
1.73100702377
0.222450435373
-0.650642256287
0.0204750368973
0.279559376863
0.486689865332
0.0917260996835
0.753351901694
-0.437967019827
0.820822678142
0.156329141032
-0.111841362663
0.0481458886589
0.867823566965
-0.394994207658
-0.565334696366
-0.500034382317
0.413795809941
-0.0235085873326
0.772281383498
-0.706154343766
0.0962782225426
1.24017437476
0.24328759057
-0.441455748706
-0.590412584471
-0.377886292739
0.165451416594
0.0405386227584
0.231303850756
0.196177170412
-0.723331769537
-0.550070232245
-0.278394254057
0.469832088762
0.399649665168
0.622024200062
0.143797340459
1.44886875132
-0.61861485318
0.091602966631
1.22431724308
0.310677478687
0.00517279937294
-0.982273705605
-0.334403346157
0.136686453909
0.0688277501917
-0.0313164894706
0.960435619894
0.358325310514
-0.364077412066
0.817343193126
0.624212940827
0.300819906604
-0.514448577897
0.104396264542
0.235382621017
0.300083484006
-0.238542996005
-0.855747639112
0.0696208685736
0.830325350334
-0.170297153612
0.331153691325
0.568690703064
0.184553055051
0.628908430162
0.308319407166
-0.336672489955
1.75689664209
-0.449382347883
-1.03765366761
-0.66038038374
-0.0073633031074
-0.577636965293
1.04117480755
-0.494373236549
-0.752036029343
0.165532771193
-0.251199613427
0.551283130268
0.468784934554
-0.330232457018
0.332397204284
-0.720037742657
-0.359779062678
0.941508218667
0.134017044672
-0.864839967757
0.676893053445
1.42190097627
0.176871595538
0.00110889794637
-0.612005366889
1.67037019518
0.74507518549
1.88962472376
-0.00205880793698
-0.0500457829928
-0.709255140208
-1.35191682802
-0.0453775842797
0.380403859261
0.649965630747
-0.238975872361
-0.475375975745
0.795554212543
0.107216144648
1.1647800044
0.693923377973
-0.228219222528
0.168799999346
1.65261628975
-0.643137865573
0.131908225085
0.833059706961
1.04723889199
0.320358086042
-0.241353650119
0.890048366569
-0.0916091318712
-0.72085701905
-0.787422825804
-0.00666790363723
-0.017493051493
-0.946075368272
-0.332058523224
-0.36502873888
0.381324832266
-0.0919746920505
-0.0115386204588
0.325962664426
-0.0563325053169
-0.0514925000884
-0.152714888599
-0.722014886392
0.152624059081
-0.0840414718725
0.141487265085
0.890452673513
-0.754809122966
-0.0496787362304
-0.709330192657
-0.320985626874
1.23754811838
0.83294807665
-0.64341664408
0.428972991378
0.154238199874
-0.880314793538
-0.477625739726
0.862769919454
-0.334068024068
0.147615460538
-0.966706807535
-1.38497983448
0.72285044951
0.020889395679
0.344819858373
-0.883594040118
0.195303849548
0.659948931772
-0.146770384726
-0.346747325767
0.132913695893
-0.532937674895
0.287576152361
1.05359119056
-0.046593388954
-0.0554969600682
-0.36015382313
0.20586087922
0.490592317167
-0.449160632216
-0.592628920503
0.0590613342256
0.762177787744
-0.520403782249
0.666099516491
1.70886381543
1.14512020021
-0.289982768793
-0.224257547703
-0.128511574744
-0.227446444243
0.812930565195
-1.01940356884
0.0785171037331
0.337205563495
0.795707222243
1.21665906988
0.360512627141
0.588990172488
-0.600496676001
-0.142113622516
-0.196217450322
-0.235526682486
0.243592328547
1.42424566142
0.889727834483
0.538980031617
0.478572438571
-0.358216112869
0.294693333766
-0.168331631329
0.865565630992
0.0967971306307
0.723417706743
0.0327926047575
-0.114949751244
0.444363783997
-0.110839990615
0.223352846418
0.0527912611766
0.772780283987
0.650564872275
-0.104316006436
0.110132156272
0.0837160216657
-1.17432813612
0.976087391534
1.26157824086
0.00132024228314
0.0532969619817
-1.02839971804
0.000692995862022
0.704219500429
0.350489589384
-0.0313270723739
0.844612521144
1.86321717008
0.202749346117
0.222896718846
1.81258624669
-0.355975718453
-0.692071199927
0.820755179324
-0.55914909256
0.426907619118
0.218390411636
0.429903011013
-0.0906962261003
-0.669022387849
-1.07675527964
-0.0993867862647
0.586479249171
1.15275484337
0.939374303234
0.505608310476
-0.40621491282
0.233189862437
-0.551706465003
0.322850721337
-1.53684962829
0.0746862001393
0.0884843376592
-0.125924080298
-0.00660891143162
0.75479138268
-1.16419949999
-0.742548192807
0.667332675346
0.107189694819
-1.54984624441
0.601477798296
0.608768062629
0.0744178331905
0.129469119335
-1.17300721909
-0.362169679076
-0.286527012027
-1.33716177367
-0.502673446818
0.204981765643
-0.926905004016
0.365557020625
-0.30324982511
0.394992444102
-1.13526648382
0.530139050628
-0.839695329998
-0.39270126584
-0.420689351996
-1.0456428195
-0.816086370461
1.7577212234
0.463465671713
-0.835679588913
0.537490753781
0.199068203373
0.380980665609
0.0761749142412
0.916618408425
-1.11968033548
0.395262816179
0.984718855044
-0.0561422136793
0.399503893931
0.707602755628
0.234892876758
0.934883407717
-0.238232130599
0.524034800821
-0.856948603591
0.53122905271
-0.234803467664
-1.33884782318
-0.0786725050515
-0.756901416166
-0.348504491137
-0.733969361658
0.734348389913
0.381067401035
0.109554388221
0.0243284892031
-0.254801941616
-0.583047599699
0.241899665892
1.20052068643
1.07448542803
-0.550880726335
-0.763817209757
-0.160695665905
0.321177691902
-0.139157854058
0.617951068546
-0.134706746378
-0.0883835649121
-0.294441960597
0.00790277503292
0.364904738734
-0.324845077654
0.0117936953725
-0.619086605368
-0.0110529967856
1.04017664515
-1.66413265998
-0.101406762191
0.199903985655
0.899147587354
0.622136439737
0.466067951982
1.01649845882
-0.134877614678
0.175456528537
-0.857342862954
0.539788459952
-0.477010585465
-0.860790352887
0.15957392511
-0.0717134831684
-0.732531014975
0.548213511154
0.320488285421
-0.0153511718194
0.859016764892
-0.278167951595
1.45130174067
0.775544358682
0.61286164507
-0.46062479061
-0.832350951982
-0.392043288411
-0.463504710081
-0.521370363516
-0.0463653951204
-1.02048311573
-1.02089731192
0.407861965096
-1.21576897724
-1.25500186015
-0.645056179154
-1.23243953122
-0.28538575199
1.18514235173
0.0940751906908
-0.405555155638
0.124345657941
0.25558151528
0.366583142423
-0.462250053237
0.192432072009
1.23096277971
-0.937901997325
0.490963859019
0.114617432343
0.0581067726459
-1.3056113185
0.367862686307
-0.579566079261
-1.01489105475
0.594450291812
0.111769068829
0.336684715364
-0.710309992679
0.570164309166
-0.776392109751
-0.0588287185021
0.291735997742
0.640906916719
1.17094069825
-0.774423402516
0.718556579292
0.047303349327
0.386419231023
-1.00881033178
-0.776480184591
-1.00135981869
1.23822336154
-0.296919281273
0.544047560787
-0.79466982003
0.014083030972
0.562605078565
-0.877204569205
-0.877973574855
-1.18665336364
0.424344955507
-0.27375632477
-0.0613195680703
0.947133350112
0.25466921105
0.261229991351
-0.0685457758803
-0.341136155958
-0.766123666792
-0.514034302114
0.307732407453
-0.091168993726
-0.463387921963
;
0.143248665023
-0.939533375674
0.437853775566
0.341999495591
0.219778535083
0.393837990595
-0.160106860471
-0.393107952148
0.299102980251
0.159267670999
0.465058684838
-0.308154089611
0.402602832287
0.507474912215
-1.04385867156
0.679563758931
-0.530642128677
-0.0156729536822
0.716920739759
1.76906914258
-0.716825533248
0.553256545674
-0.987213110289
0.308189697745
0.706512413488
-0.0838515984788
0.711264422529
-1.06198167914
-0.0280039508021
-0.504234644035
-1.04132608373
-0.0707140270089
0.787574355797
1.18438348315
0.172227891527
-0.670198328461
-0.314658147917
-0.175094280559
-0.0331240024325
0.289638997313
0.0538021321911
0.220956139969
-0.939321516797
-0.59511473171
-1.2390360716
0.202541777518
0.150378979397
0.9170702267
-0.138941805638
-0.440189428396
0.179457222412
0.275449307749
-0.417031883342
0.0288626401043
0.00769409409929
0.184513541978
0.224192159461
-0.437409957355
0.0064355128955
0.304556158612
-0.396538250611
-0.593793893483
-0.0497694092859
1.49103094384
0.0410979926238
0.422495476252
0.117069568601
0.747097488366
-0.897568825733
0.65108410319
1.246646075
1.50233200899
0.357758932555
-0.28322689116
-0.79594801258
-0.474422960071
-0.327624141731
0.76507090074
0.313810327788
-0.716348115216
0.00119690576563
-0.472986275472
-0.532242813473
0.147254495566
0.033895627734
-0.861776493015
0.687698245391
-1.17016472419
0.0319818025111
1.22438621695
-1.53531030329
-0.747398133655
-0.326890932759
0.203487390871
-0.596216944283
-1.65959875153
-1.16375794324
0.124704678626
1.06185500908
0.853331589781
0.646629496984
-0.0934946457973
0.635732180595
-0.139712395967
-0.0840831230434
1.22929448518
-0.575205244068
-0.571981159964
-0.458264364826
0.720937993643
0.903027199236
0.495670815537
-0.0867493776227
-0.980611044377
-0.72301871842
0.731833892776
-1.14537978332
0.360391504528
-0.945380575493
-0.318076310047
-1.64743180114
-0.0903046840636
-0.993492700615
-0.363605201589
-0.793270543375
1.04013495847
-0.777543606933
-0.712361258139
-0.637602268733
0.650271514624
-0.0366583059164
-0.272916769505
0.418974687258
-0.824208440812
-0.263522115592
0.971566960443
0.334263953966
0.29898840843
1.07517565095
0.404412497208
-0.106949769319
-1.21918778714
-0.896146314513
-0.218944604669
-0.809341203112
-0.321790826653
-0.427538703208
0.0784380359713
-0.290299398315
-1.4508665635
0.570609592322
-0.252657894679
0.104533978984
0.997214479681
-0.345092850818
0.229711650834
-0.434177157302
1.28404489204
0.742499469686
0.172442191737
-0.655871771321
0.818021525196
-0.130814180658
0.919146370193
-0.31847444625
0.871872787062
0.516993758362
-0.482932165486
1.01663688106
0.367542143278
0.37255653676
0.655929398617
0.134990767919
1.15485026624
-0.524799274697
0.345466370297
-0.946198531366
-1.36970184017
1.31262533775
-0.414181871555
-0.360368494606
0.38177408487
-0.249738159012
0.082268412793
0.336744297948
0.695272193344
0.535247081069
-0.0291700140632
-1.02045067186
0.48713915278
-0.324726461442
-0.0183780931169
-0.73142641432
-0.477335703803
-0.169749822755
-0.312741010135
1.4802712664
0.463111078617
0.0281267877939
0.740647017803
0.25572623789
0.981497563319
0.206779537099
0.0699945412136
-0.363184560882
-0.44414759031
-0.377094122654
0.207183339533
-0.0948357754212
-0.214072324438
-0.488226152627
-0.799444817874
0.865754415047
-1.17205129943
0.956172785012
0.513537610874
-0.208077961061
-0.520768252841
1.21266720483
0.279360017675
1.13074158936
1.17225658517
0.239031547266
0.507726526855
0.799709191546
0.0666985322107
0.673609694687
0.0534010485384
0.926993022289
-0.449970151847
0.748643356652
0.342585972377
0.781638731251
0.357503705193
1.5520917175
-0.199225866226
-1.12908469905
-1.44171485688
-1.88361719488
-1.22001879861
-1.05351612004
-1.02543481029
0.0188810153679
0.0319555220181
0.329362033038
-0.600191000312
-0.662046571377
0.582521676961
-0.424993748657
0.209506891873
-0.299818419467
0.0490073754865
-0.333048467887
0.231439151826
-0.299622908645
-0.112974931487
-0.20841588615
-1.34927928264
0.367207953865
-0.297912049308
-0.547338346442
-0.632705081458
0.0274811555574
0.76658702872
0.219992641267
0.627277141425
-0.432564039462
1.21001020615
-0.486041411732
1.50865268681
1.11484366749
1.63323743548
-0.549220710912
-0.479823200949
0.181106461266
-0.329353155411
-0.861640155036
0.206454441474
0.442571827696
-0.106729126115
1.78464141234
0.712893002921
-0.580910670783
-0.288422579553
-1.01272758528
0.639810527162
-0.981119477512
-0.169313988122
-0.199577033316
-0.261075384918
-0.303560268715
-0.284424271834
-0.188258772739
0.0718606440889
-0.925625593761
0.687607871035
-0.598421180254
-0.969467322145
1.43565806274
0.551745123373
-0.112862346582
-1.14242641224
0.609681927514
-0.378589154036
0.590850204684
1.17988575189
-0.351442953291
1.44342636408
0.219572853441
0.0214505049083
-0.018264356708
-0.0692368264442
-0.0950036620067
-0.674675924051
0.837592693076
0.588536407995
-0.504457316932
-0.887857791043
0.4566564412
-1.07648675238
1.09781096087
0.225919770348
-0.950774042379
-1.15388263611
0.137928920175
-1.22557802234
-0.0898764005574
-0.0256381190775
0.315967159515
0.58583888906
-0.450924239815
-0.891214943746
0.200732921697
-0.720083346257
0.0483300116537
1.38409013256
-0.752699793972
-0.670783858685
0.963376544581
-1.15004140019
-0.261479540969
1.43920656532
-0.82261646971
-0.222657471245
1.70482312101
-0.529351750589
0.3248514471
-0.416106691784
-1.685056832
-0.925533645349
0.887342656192
-0.134645906645
0.113219905895
0.308182033301
0.335874003845
0.0349270512042
-0.66896439102
-0.00819354239801
0.443369262199
1.06136331577
0.28630623962
-0.701628605677
-0.102896146532
0.659884199708
-0.724466044137
-0.71605882696
-0.478358318856
1.49388777423
0.316226830482
-0.13172433958
1.99007223676
-0.441199832197
-0.332676274426
0.571770269195
-0.947120809243
0.521360238549
-0.775120851785
0.625693940949
0.0640734907331
0.32463994826
-0.366501424494
0.0876760507173
-0.26497329636
-0.0887209760232
-1.26677470743
-0.53543065895
-1.05997823208
0.214954677747
-1.46401265507
0.208316203854
1.52682700382
1.18323776703
-0.993773034139
0.183908165924
0.835865247396
0.942724132877
-0.651111670474
-0.00224726603154
-0.923904131112
-0.96111566128
-0.265969824092
0.0191265434169
1.00670364541
0.853626994199
0.621404266269
0.229948717884
-1.18268478524
-0.476462793722
1.29356530639
-0.257061911585
0.366351300104
1.02802066614
-1.21765255423
-0.617515678171
-0.660660940594
-0.823748063034
-0.680557679312
0.561859846201
-0.212999400357
-0.525209007745
-1.05415206059
-0.417714658142
1.11723533684
-0.805790797697
-0.733103918762
-0.259441861491
-0.514075837573
-0.00257940477154
0.0116064009227
-0.407386653817
-0.553740683319
0.613211906112
-1.02881380599
-0.187163251682
1.31518322617
-0.326565884521
0.143033781862
-0.57594834544
1.49287976085
-0.318185241823
0.686312637057
-0.772026702301
-0.980047548231
-0.430363802243
-0.821514263063
0.0304234395376
-0.0133507903871
-0.654203052361
-1.59221475506
0.261969436705
0.107706808038
0.92202626237
-0.525770184903
1.77934931536
-0.0572189277236
-0.743734827104
-0.359359259553
0.556877151386
0.831939457852
-0.0920805049465
-0.0767737732203
-0.430505114026
-0.0694744155291
0.630570569305
-0.291426293207
0.417649073032
0.933508014252
0.218146794294
-0.348751616555
-0.60053735779
-0.65540958448
0.505560099793
0.0527670668284
-1.05005309946
0.253326426476
0.704024724811
0.56241937563
0.82887679792
-0.185790141754
-0.37459998686
-0.386017726656
-0.615238764699
0.258064602487
-0.377886065408
-0.165554108738
-0.63297324065
0.021225498023
-0.415835991236
-0.907522190009
-0.306413640371
0.643059467472
-0.794294272053
0.11168662215
-1.60492456788
0.137662284743
0.632661585637
-1.12358088998
-0.22765023938
0.668841169021
0.340655333566
-0.314233081687
0.268311103833
-0.0997051757124
-0.45529991357
-0.817651365735
0.51219150915
0.0241469852934
-0.719718263664
-1.28036126909
-0.686640357299
0.0397899914388
-0.490428825061
-0.439732204617
1.72387448453
-0.268044780898
-1.72453193969
0.464056237742
-1.19287273154
1.72580652672
0.432092834163
-0.663438946139
-0.789659828135
0.4228410547
0.254713708405
-0.990758925067
0.0481556853072
0.360180862545
0.958645374382
-0.980751697564
-1.11128595866
-0.769102633008
-2.35849042574
0.691558666755
-0.288924932917
0.00485068006385
-0.86310104872
-0.866526767689
1.70163389282
-0.10112675521
-0.1113120067
0.783228364156
0.770866701874
0.000289059520822
0.281861117611
0.331725272931
0.4916016941
1.34761281522
-0.145168708329
-0.0684427832201
-0.205092310475
-0.246339395553
0.96107184403
0.0941272643169
0.313762408988
1.01878340706
1.14955598333
0.438163617655
0.690604121189
0.575225426744
-1.29768747594
0.48431141815
-0.356815876598
1.29584753557
-0.827844587809
-0.821127783998
0.335278675502
0.0222618140687
-0.577950220169
1.05599358444
-1.48656423241
-2.01151412508
-0.842017788083
0.443788769523
-0.560936016986
0.487198872793
-0.876762801671
;
