0.311837976868
0.231621435072
0.265549465799
-0.803212620431
-1.31096760501
-1.06518943224
-0.0877684358864
-0.469813485194
-0.437848566203
0.0628683670583
-0.326349723676
-0.12460497638
-0.101907219054
-0.0569019168284
0.929203680907
-0.804177124014
-0.0718301157637
-1.39324784572
0.14037350252
-1.51103646524
0.379229090851
0.510198857757
0.483961801927
0.338309186401
-0.320343841869
0.0832459905871
1.13488662778
-0.0647213809737
1.18001215401
0.682616967095
0.295972045458
-0.976158385351
0.145969910258
-0.608710324444
0.606792646822
-0.702891136862
0.0999102489067
0.606217472359
-0.476348542551
0.0225800870089
-1.06349806829
0.635583588307
-0.724733104494
0.737129722923
1.0228243438
0.686042256911
-0.213766652836
-0.275124844314
-1.92555128854
-0.289065400592
0.885652995603
0.111215770826
-1.29262870824
0.649749125067
-0.136886229246
-0.472254361469
1.17371884751
1.03329319433
1.68671805447
0.301146337377
0.938757261657
0.12690311377
-0.897578066658
-0.0113199862778
1.10269794355
0.0939309869681
-0.12678901708
-0.257078553572
-0.704847113094
0.42922804826
-0.0836063994651
0.0274594941743
-1.28130375285
0.684595493763
0.00102679480215
-0.307847493597
0.280321306426
0.699170425054
0.546832122405
-0.295889989063
-1.0191862617
0.204367055284
0.644187523872
0.676721822075
0.886012608191
-0.0253927142331
-1.12809131139
1.29733540031
-0.469158334173
-0.274296082301
-0.598246296406
0.560085961144
0.507901101018
-0.805958867578
0.607120894798
-2.08021214009
-1.33752415254
1.25954662138
0.130501880176
1.12782687467
-0.567826089409
0.651738210041
-0.411333735131
-0.840400857636
-0.136367951726
-1.0475758126
-0.309375644655
0.153242288563
0.220750988491
0.263510409661
0.0201236032714
0.455504254808
-1.91476830233
-0.155183438395
0.563936353259
-0.837097209487
0.278058414405
0.314686420844
1.61602702821
-0.0787683877183
-0.568827930523
1.18317883552
0.487834001973
-1.59976014876
-0.0339960863056
-0.400964888232
-0.156067667906
-0.64754638329
-0.0450140990616
-0.0116082720361
-0.0360592737276
-0.264911178894
0.404875054816
1.27414018821
0.101728577819
-0.52637959621
-0.679480651585
1.2617895158
0.611567194366
-0.227883801005
0.671803933713
-0.168465813337
-0.103278426367
-0.489988144131
0.420443939499
0.260731339586
0.909990050082
-1.48670744167
-0.81174593888
0.650430213311
0.372974246193
0.302121835091
0.303529682591
0.0416231933812
-0.673904260192
-0.424116451508
1.01944723233
0.0953253993128
-0.675736096784
-0.721172515972
0.786373248936
-1.0412311855
0.460418147425
0.595276696387
0.728762663824
0.697729128318
0.822896894119
0.884342420126
0.223619176208
0.416161038585
-0.489732509034
-0.928941884923
0.224661237353
0.0233860105486
-1.25748365396
-0.0610965254592
-0.295611954882
0.287022671707
0.577851634759
-1.65280639359
-0.471644302024
-0.181441315463
-0.61409853691
-0.304237933378
0.644262971491
0.0328632266297
0.369609183896
-1.51030599128
-0.171366769012
-0.0147260764828
-0.703245702157
0.81954689707
0.0879001759491
-0.643636334737
-0.437266131887
-0.128755007256
0.83952937428
0.263018195694
-0.800242313736
-0.143763276708
-0.691016165458
0.460408059171
0.568084993188
0.399053849878
-0.0623854883774
-0.480136106815
0.640703589494
-0.36955301983
0.0234719632494
0.073162675472
0.290389590728
1.10440814355
-0.326196693293
0.0634892393788
-1.01434928799
-0.567709229659
0.469001731431
-1.22246398728
-0.739985983664
-0.901861325798
-0.214843876476
0.0234014559389
0.981631017324
-0.898099660262
0.771142481225
0.529356562925
-0.896015238854
0.632829586886
0.990271620137
0.761100063094
0.720063019641
0.412210773561
0.142183284011
0.380227036686
1.03045122368
1.00586953982
-1.63580309971
0.097051181586
-0.270743591077
-0.176543470293
1.40911401921
0.0938246805636
0.0633513747701
0.462559467389
-1.4016839367
-0.778298603594
0.75044789473
-0.15252819921
1.00934466727
0.189180760149
1.5398542882
0.156609581894
0.465132474014
-0.264449855969
0.528733721078
0.283041686183
-0.351188580467
0.849743267286
0.0594382904355
0.515331726628
-1.08880366272
-1.61663125585
-0.547252434105
1.20251553481
-0.203466791268
0.6683331225
0.27655812925
1.6314986726
0.471905974231
0.828499322187
0.327867110388
-0.266957006482
-0.221975576521
0.323775279001
0.628430731173
-1.37373759399
-0.412349915242
0.636649170188
1.9309461813
0.845428627876
0.667292202884
0.0225805247419
0.769963099331
0.190783630015
0.348218096931
-0.0248176132717
0.855455902685
-0.367027764879
1.99111957263
0.0306403008269
-1.34687877292
-0.528923277857
0.237356120407
-0.162041627401
-0.608549152747
0.652456452709
0.0681678690319
0.385522980453
0.307752550107
-1.13245237468
0.23750323653
0.841008198188
0.26425645827
-1.39134933856
0.171226981142
-0.525374138156
0.880059938319
-0.099087436789
-1.20545401185
-0.310153536374
-0.885712595094
1.02394721551
0.25044040864
0.545477422329
-0.388573339166
0.556332279544
0.469370482521
-0.610103120102
0.743545854724
-0.780004607718
0.189953499749
0.34115125726
0.867616529301
-0.631748400457
-0.00648233061431
-0.974375971516
-0.295509059027
-0.0392258550809
0.656138255484
1.05618458976
0.196578559335
0.762849468092
0.426483223974
-0.394707104141
0.0822492551431
0.900093148585
1.09878878076
0.138386576573
-0.306464689476
0.365412769366
-0.583047445002
0.0553034017834
-0.866797670007
0.586124107549
0.583545101796
0.202767085105
0.540369462498
0.506486291298
-0.461040583101
-0.658056407439
-1.18571282187
0.175101357955
0.209848327422
1.01843021556
0.861727970451
-0.781897992233
0.0103748532104
-1.15157361102
-0.262763581049
0.769757613887
-0.506247590075
-1.14998451638
-0.150825372118
0.0342146917542
0.606941459045
0.520483967429
0.488847800819
0.709850782157
-0.820832817412
-0.761035112522
-0.99377001627
-0.154071535447
0.0497444117966
0.0703504334556
-0.0902336627568
-0.98379736994
0.378952604884
-0.953862649498
0.367130428469
-0.064461765269
0.999808296238
0.338423071555
-0.54385393513
-0.495771981824
-0.0676143621652
0.918495390666
0.19552800767
1.38522705994
1.12424713882
0.491006251918
-0.432003959097
-0.118857800381
0.463564827242
0.12165191118
-0.0465203462933
-0.94775631244
0.326638430635
-0.174190428224
-0.243952399691
-0.85852648387
-0.320350114399
0.727255009668
1.13941999627
-0.628602182313
-0.158982406715
-1.14286217646
-0.968670749512
-0.668894947213
0.0162585069266
0.897228447728
0.7313537768
0.0182816319747
-0.421297023316
1.28057001121
-1.64601346545
-0.471352074983
-0.374936330718
-0.968047470648
-1.05198763723
-0.263001609417
0.299259914737
-0.0999038748837
-0.602646274723
-0.231497672214
0.381805572117
0.227736517552
0.679890553665
-0.948076926628
0.634231820391
0.213223651058
-0.507852203139
0.0111979046108
-0.959425491626
0.326874327374
-0.948659846439
1.13616705765
0.170476612647
0.517136268207
-0.709873390341
-0.313967258584
-0.550647013045
-0.0360706382862
-0.343961036282
0.684592057086
-0.731754359786
0.0222610238841
0.165916685126
-0.653091619984
-0.66889367342
-0.112861483312
0.278004297309
0.204298898589
-0.383885306629
-1.54482310222
-1.54642867101
0.0616568525447
-0.413158334349
-0.0360726135487
-0.555748554648
0.585174940842
-1.1429312922
-0.250432045466
-0.275182256644
0.81847834141
0.88325435104
1.33829594903
0.534947346205
-1.08071742841
-0.477697068971
1.17289626026
0.133724129026
0.202135521461
-0.103080176406
0.444479320414
-0.740416081841
-0.610126880068
0.594072147821
-1.60499526526
-1.19380505109
-0.25770648916
-0.357131783107
-0.967947180838
0.463145479608
0.370249698701
0.236277843422
-0.516945445051
-0.77172108769
-0.19070751084
-0.0158324662164
-0.135533033513
0.4689912767
-0.724481456636
-0.579035986411
0.759091613475
-0.176419229131
1.0575779945
-1.79946757558
-0.84950810875
0.915891288847
0.412491946216
0.630091366671
-0.0694452457541
0.676411739741
0.664071574174
-0.0344619312646
-0.307833897389
1.02885558395
0.286439796385
-0.17896233559
-0.81869226533
-0.833301570183
1.85733402615
-0.174908005964
0.57818254912
0.948137289436
0.144306700043
-0.043710058621
-0.898432273047
0.791643163175
0.636229102142
0.606539875755
0.790157065156
-1.4211173621
0.450574218433
-0.929957415648
0.997856343118
1.19979266253
0.209584443988
0.549993630461
-0.52205145806
1.34189740411
-0.536000098313
0.355119821323
0.0127532869843
-1.3397828515
-1.41731033145
-0.325626121007
0.813772864002
0.561231297102
0.443644913162
0.496083527639
0.486870733192
0.423790208574
-0.598326426164
-0.215113102831
-0.0676444439292
-0.0784999689188
0.0738426999951
-0.302428863278
1.26960466754
0.197394030276
0.443390188714
-1.82467015799
0.441588992885
0.0167094562715
0.0350176830331
-0.166517609762
0.141048882647
-1.04635185134
0.627481518487
0.459027357011
0.0742506745466
-0.760207620536
-0.81514903033
0.307596203342
-0.814823487241
1.21453516678
1.17187703133
-0.561730947152
-0.570633363832
-0.770122132624
0.147749436499
-1.06610033091
1.31737577351
-0.128960147121
-1.13500474952
;
0.48037789643
0.299773236758
0.748568632207
-0.938337773057
-0.270924386762
0.239245965174
0.205674419128
0.439985960782
0.0257009051694
1.0951315349
0.3119049218
0.457547032125
-0.480790062482
-0.724030763612
0.885230729703
0.0522583937935
0.430466907205
0.397842751493
0.742113649961
0.587812411682
-1.66214156588
-0.83631141755
0.292126325078
0.270110008534
-1.35053896842
0.376058836444
-0.0436547841381
0.171528743172
1.12467585936
0.516459579673
1.18390849002
-0.355618020285
-0.667154250595
0.238397373645
0.537336729932
0.3554514483
1.2830602663
-0.910721943149
-0.219961027815
-0.0422581698721
0.477100452904
1.52571861715
-1.64334290395
-0.201184553225
-0.306844333124
0.165777153492
1.27169816725
-0.0518641493461
-0.443364728123
-0.575067274727
-0.734977144058
-1.00572786233
0.0408974994638
-0.311396736399
0.873470604152
0.171748672623
0.365655830069
-0.266996427294
0.100848094087
0.11733280236
-0.13897635794
0.562255249818
-0.0312191921289
0.124530175754
-0.538843124981
0.165032557971
-0.931539813152
-0.0845426482609
0.594503998448
0.753989791698
-1.09989924763
0.501618963495
-1.23207233317
0.751263466029
0.70135488959
-0.600815841855
-0.137766752172
-1.18644232031
0.270176817457
-0.691153059453
-0.541872957229
0.309805913938
0.0634860216175
0.0214795911285
-0.0212912771453
-0.864040941685
-0.563053881174
0.0426467455869
0.307086073299
-1.28044398501
1.2251818503
-0.379574129267
0.608847188584
0.0215706675713
0.0483024856543
0.170998115513
0.319801768614
-1.16986659048
0.280469321039
-0.798517819952
0.433366364122
-0.138914362874
0.178666498184
0.514572348234
0.979133097606
0.427502457197
-1.26786052355
-0.658403262459
0.370005517615
-0.736781801368
-0.212900173635
1.53095313005
-0.513721585607
0.186515339146
-0.330480859039
0.752843778239
-0.11490577796
0.999134668346
0.610282763735
0.314287289666
-0.129213317657
0.623039560499
0.116771795249
-0.897106808595
0.653555062716
1.06462617969
0.964373942234
-1.6712048861
0.350662718138
-0.0943745920446
0.381271130932
0.505482003513
-0.730799225885
0.271109570963
0.281163595345
0.308742841008
0.0640611052819
0.535517116362
-1.31553155716
0.7452210694
0.144974553599
0.147448119854
0.128297560955
0.06526198639
-0.242357734467
-0.639946001741
-0.333325148854
0.0247447729004
1.5332144126
0.11923454249
-0.370203095447
-0.557633918743
-0.35366768572
0.399398345992
0.470382362238
-0.0866296192308
0.995196776801
-0.290364351365
-0.116388150122
-0.800622925315
-0.286039072587
-0.623583936034
-0.898703900108
-0.142836263825
-0.925887933432
-0.580443133616
1.18995544076
0.495408942178
-0.768484408399
0.465044292167
0.991398569525
0.15392088921
0.0783416813588
0.734883241294
0.00558628402282
-0.234719296264
-0.19260302895
0.827223812158
0.0793720081247
0.104881239904
0.306819845264
0.38745705966
-0.773473527349
0.514260817695
-0.0288855465513
0.313323848625
0.941273613424
-2.21133750081
0.243793212499
-0.0608197052042
-0.330893352238
0.848268859818
-0.0635271665589
-0.440886665045
0.340563838451
-0.0285335486346
0.575500466014
-0.471785983168
0.215377955991
1.44428799599
0.693496839893
-1.94756279742
0.743836368425
-0.120382712453
0.540603956285
1.13570402294
0.254749518241
-0.0996170683083
-0.235350809946
0.182774835349
0.362508933536
0.402052720934
0.743637515363
0.331459930714
-0.53764966111
0.818936974269
0.236076819814
-1.89353184857
0.184774678487
-0.814978403926
-0.292807962406
-0.510157256206
0.726105449079
-1.23535983167
0.374099649277
1.52031190549
0.11274452064
-0.860133827767
-0.368582120754
1.64857868205
0.0930978952368
-0.506158424852
-0.3231186837
0.014093448818
0.830859753896
-0.162887152728
-0.290862322356
0.524604083902
-0.342764728738
1.05822389797
0.380330329633
0.112928332022
-0.0186462275375
-0.272946310513
0.861579504756
1.69221708938
-0.238323182648
-0.389105617746
-0.133233084573
-0.900890725096
-0.578542857379
-1.35437565029
0.375974892739
0.0135152728219
-0.855119571849
-0.431864325674
-0.145329324529
-0.99313357044
0.644826002021
0.355096246179
-0.0290317745287
0.15195780619
0.895170522169
1.29117771462
0.176244481008
-1.50532088693
-1.39048157699
0.0874926933189
0.531095810216
-0.27067238648
-0.425628758807
-0.41224143599
0.326573174317
0.650347234066
-0.20535289604
0.401617358891
0.291693774743
0.893509784184
1.28425584282
-0.0379076769124
-0.69104170565
0.739025775897
-0.459975889605
0.774590153284
0.450608863256
-0.141398357945
0.247978262599
-0.34344157067
-0.290649310038
-0.559254335245
0.2808457384
1.03968970865
0.599201954817
-0.332503732974
-1.18770987894
-1.60499525338
0.342545069803
-0.0533521747761
1.26681072799
0.293108609693
0.509878993041
-0.800591224167
0.44513324988
0.769219080885
0.202149973722
0.605116238525
-0.105387546161
0.649101450987
0.280314423233
-0.264664157418
-1.13891927454
0.614685073034
0.36874182966
-0.0123971724861
0.171708747721
-0.195199830562
-0.309920403879
0.0232657735962
0.731753025875
0.173165893079
0.23930304593
0.190603311609
0.274583840404
0.485971639383
0.418795846199
-0.577982916215
-0.123699943552
-0.397840756318
1.39492187256
0.405710379395
0.747997128068
0.658889069923
-0.159334096173
0.0912588440481
-0.397615617381
-1.32770490238
-0.554799528982
0.513589619852
0.308476776726
-0.803672431414
-1.02589124865
-0.603644937861
-0.38685185525
-0.110144806084
-0.916154478756
-0.909822473658
-0.115444558283
-1.01848713154
-0.554575760908
-0.376077305606
-0.215070092696
0.612673341137
0.421228697299
-0.0426710260316
-0.237850227989
-0.00210073010735
-0.360498124315
-0.585339201883
-0.905615511581
0.479892559959
1.21189981395
0.66455972568
1.42290510163
-0.259671968613
0.906400267712
-0.696496137673
-0.0201848755546
-0.738453778088
-0.493663963832
0.0784355764391
-0.323144406614
0.688401986315
0.211468583226
0.762814875429
0.477516435798
-0.475100576935
-0.216779316654
-0.00234411580084
0.540350989122
-1.2416792814
0.875083098817
1.37660433989
0.800893822344
1.56583942405
0.108041331066
-0.707481399839
0.127344106264
0.936757471224
-0.525320813568
0.617985945881
1.41023855992
-0.336797183438
-0.471480531308
-0.75077481229
0.819253156649
-1.12275715566
0.21461602339
-0.19943582524
0.138071732805
-1.3764006305
-0.309081831047
0.142991380766
-0.48282394837
-1.24862814004
0.517420523511
-0.369214016889
-0.554275505144
-1.07955607325
0.0481385583486
-0.187942268872
-0.0784778150957
-0.151771483667
0.943780238851
-0.614135203185
1.17736488047
0.638361636768
0.597209831936
-0.827934187304
0.871089272321
0.309057507619
-0.325247724054
-0.753894802992
0.0473238200531
-0.970779583567
0.0433777808291
0.458368249609
1.7376530629
1.11631541952
-0.302137473444
-0.287886648248
-0.414984545406
-0.767637933774
-0.68910202447
0.931063138209
0.742736197862
0.498782196825
0.809480023754
0.0615485788759
-0.179882659546
-0.118659046217
-0.920853086564
0.201641972592
-0.358497776382
0.596528561034
0.300054198588
0.898187757895
0.274123153286
0.382903650659
0.607227697426
-0.0820114127968
0.0899911321642
0.00135216934432
0.0287688642087
-1.13765541265
-0.534201679266
1.34932105945
0.506246842652
-0.482842665713
0.970798728802
1.24446796364
-0.3631255866
-0.995606595567
0.594697461961
-0.929517593899
0.43903965359
-0.0262573908528
0.841603285145
-0.0733929569856
0.393378591326
-0.352350605666
-0.500587615221
-0.410160131144
-0.926242329075
-1.02212583457
-0.0116464991441
0.0157159771141
-0.235585646401
0.283316305443
-0.547581419102
-0.261610117028
-0.118029789347
1.63439436539
0.428105280364
-1.09226755552
-0.486503286577
-1.19625562697
-0.428492257949
-1.25710829943
-0.879470677839
0.027417245399
-0.0767851904024
0.872345528573
1.43015012481
-0.032338903863
0.0389851323791
0.502094406762
-0.307734156727
-1.23643499522
-0.834086230006
0.342084629638
-0.325246348862
0.248884329168
1.5852986192
-0.601542542255
-0.359828811775
0.28846731767
-0.184418700891
0.801404479314
0.977405837208
0.0760697415727
1.02685350161
0.385795629632
0.227649589601
0.326665202604
1.87032308571
-0.118886821638
-0.273974379693
0.485501519864
-1.324805919
0.070729517582
0.0713472327929
-0.524592998982
-0.316823240359
-0.109645466778
-0.39181425419
0.445798785748
-0.843301421787
-1.20293959948
0.896228740233
-0.729522514857
0.705912180031
1.18059183982
-1.14745427451
0.0233521532927
-0.542467047487
-1.18548119202
-2.12028291585
-1.64679652862
0.0745490133512
0.538096256501
-1.10598165817
-1.19128714196
-0.831651163712
-0.829941979583
-0.32020555269
-0.683385082698
0.0218584975076
-0.664122291133
0.103183959822
-0.657654830548
-0.555882488035
0.354113365346
1.3252498327
-0.186244563902
-0.160302471631
-0.732512185022
-1.45382750881
-1.0659407607
0.852453736173
0.174552423468
0.0419676445333
0.143099039091
-1.41612280836
-0.0648024314354
0.0978402529178
-0.260975160543
-0.43510102046
0.825799114381
1.4113690285
-1.39026211489
-0.501896249045
-0.60186291872
0.931658673008
-0.354533202019
-0.809300238418
-0.947516695426
;
